digraph Tree {
node [shape=box, style="filled, rounded", color="black", fontname="helvetica"] ;
edge [fontname="helvetica"] ;
0 [label="petal length (cm) <= 2.45\ngini = 0.66\nsamples = 97\nvalue = [47, 57, 46]\nclass = versicolor", fillcolor="#ecfcf3"] ;
1 [label="gini = 0.0\nsamples = 33\nvalue = [47, 0, 0]\nclass = setosa", fillcolor="#e58139"] ;
0 -> 1 [labeldistance=2.5, labelangle=45, headlabel="True"] ;
2 [label="petal length (cm) <= 4.75\ngini = 0.49\nsamples = 64\nvalue = [0, 57, 46]\nclass = versicolor", fillcolor="#d9fae7"] ;
0 -> 2 [labeldistance=2.5, labelangle=-45, headlabel="False"] ;
3 [label="gini = 0.0\nsamples = 29\nvalue = [0, 53, 0]\nclass = versicolor", fillcolor="#39e581"] ;
2 -> 3 ;
4 [label="petal width (cm) <= 1.7\ngini = 0.15\nsamples = 35\nvalue = [0, 4, 46]\nclass = virginica", fillcolor="#8c4ae7"] ;
2 -> 4 ;
5 [label="sepal width (cm) <= 2.75\ngini = 0.48\nsamples = 7\nvalue = [0, 4, 6]\nclass = virginica", fillcolor="#d5bdf6"] ;
4 -> 5 ;
6 [label="sepal width (cm) <= 2.65\ngini = 0.48\nsamples = 4\nvalue = [0, 3, 2]\nclass = versicolor", fillcolor="#bdf6d5"] ;
5 -> 6 ;
7 [label="sepal length (cm) <= 6.2\ngini = 0.44\nsamples = 3\nvalue = [0, 1, 2]\nclass = virginica", fillcolor="#c09cf2"] ;
6 -> 7 ;
8 [label="gini = 0.0\nsamples = 2\nvalue = [0, 0, 2]\nclass = virginica", fillcolor="#8139e5"] ;
7 -> 8 ;
9 [label="gini = 0.0\nsamples = 1\nvalue = [0, 1, 0]\nclass = versicolor", fillcolor="#39e581"] ;
7 -> 9 ;
10 [label="gini = 0.0\nsamples = 1\nvalue = [0, 2, 0]\nclass = versicolor", fillcolor="#39e581"] ;
6 -> 10 ;
11 [label="petal width (cm) <= 1.45\ngini = 0.32\nsamples = 3\nvalue = [0, 1, 4]\nclass = virginica", fillcolor="#a06aec"] ;
5 -> 11 ;
12 [label="gini = 0.0\nsamples = 1\nvalue = [0, 1, 0]\nclass = versicolor", fillcolor="#39e581"] ;
11 -> 12 ;
13 [label="gini = 0.0\nsamples = 2\nvalue = [0, 0, 4]\nclass = virginica", fillcolor="#8139e5"] ;
11 -> 13 ;
14 [label="gini = 0.0\nsamples = 28\nvalue = [0, 0, 40]\nclass = virginica", fillcolor="#8139e5"] ;
4 -> 14 ;
}